<?xml version="1.0"?>
<opencv_storage>
<cascade>
  <stageType>BOOST</stageType>
  <featureType>LBP</featureType>
  <height>48</height>
  <width>64</width>
  <stageParams>
    <boostType>GAB</boostType>
    <minHitRate>9.9500000476837158e-01</minHitRate>
    <maxFalseAlarm>5.0000000000000000e-01</maxFalseAlarm>
    <weightTrimRate>9.4999999999999996e-01</weightTrimRate>
    <maxDepth>1</maxDepth>
    <maxWeakCount>100</maxWeakCount></stageParams>
  <featureParams>
    <maxCatCount>256</maxCatCount>
    <featSize>1</featSize></featureParams>
  <stageNum>16</stageNum>
  <stages>
    <!-- stage 0 -->
    <_>
      <maxWeakCount>2</maxWeakCount>
      <stageThreshold>-5.8800283819437027e-02</stageThreshold>
      <weakClassifiers>
        <_>
          <internalNodes>
            0 -1 18 -674898486 -653194749 1342292047 -654147509
            -1853840741 -1073741819 -2147450741 -608175201</internalNodes>
          <leafValues>
            -9.8886829614639282e-01 8.9272028207778931e-01</leafValues></_>
        <_>
          <internalNodes>
            0 -1 28 -217987177 1896988689 25268235 1359028551
            -1073682773 -1853751032 -938966869 -137379409</internalNodes>
          <leafValues>
            -9.4456493854522705e-01 9.3006801605224609e-01</leafValues></_></weakClassifiers></_>
    <!-- stage 1 -->
    <_>
      <maxWeakCount>2</maxWeakCount>
      <stageThreshold>-1.3381022214889526e-01</stageThreshold>
      <weakClassifiers>
        <_>
          <internalNodes>
            0 -1 16 -788811521 -208547373 1359302677 -142085639
            1394462651 -284188385 -142542597 -69731365</internalNodes>
          <leafValues>
            -9.5887851715087891e-01 8.0377358198165894e-01</leafValues></_>
        <_>
          <internalNodes>
            0 -1 8 1464202111 -213663407 269271937 -616103549 289516175
            -47673334 -820926325 -12320801</internalNodes>
          <leafValues>
            -9.3758380413055420e-01 8.7076544761657715e-01</leafValues></_></weakClassifiers></_>
    <!-- stage 2 -->
    <_>
      <maxWeakCount>2</maxWeakCount>
      <stageThreshold>-1.4943824708461761e-01</stageThreshold>
      <weakClassifiers>
        <_>
          <internalNodes>
            0 -1 7 1460731901 -44969507 -779994849 -582905576
            -1038562885 -1189773079 -1936023569 -2258773</internalNodes>
          <leafValues>
            -9.3027520179748535e-01 8.1176471710205078e-01</leafValues></_>
        <_>
          <internalNodes>
            0 -1 20 -715399170 -787378099 -1324146034 -712778997
            -804789553 -611843453 -532461137 -67118677</internalNodes>
          <leafValues>
            -9.6120297908782959e-01 8.1809169054031372e-01</leafValues></_></weakClassifiers></_>
    <!-- stage 3 -->
    <_>
      <maxWeakCount>2</maxWeakCount>
      <stageThreshold>-1.3719402253627777e-01</stageThreshold>
      <weakClassifiers>
        <_>
          <internalNodes>
            0 -1 22 -707802881 -133453671 -2130477039 -683415549
            -754726013 -1878999038 -267672849 -7360561</internalNodes>
          <leafValues>
            -9.1956126689910889e-01 8.0237156152725220e-01</leafValues></_>
        <_>
          <internalNodes>
            0 -1 0 -212374769 -106707833 115437 -150748149 -377042805
            -666533725 -884418145 -552875921</internalNodes>
          <leafValues>
            -8.9500916004180908e-01 7.8236722946166992e-01</leafValues></_></weakClassifiers></_>
    <!-- stage 4 -->
    <_>
      <maxWeakCount>2</maxWeakCount>
      <stageThreshold>-4.6073567122220993e-02</stageThreshold>
      <weakClassifiers>
        <_>
          <internalNodes>
            0 -1 13 406853077 -1186987760 1360007509 -586088427
            -1744795464 -120584047 -1476359941 -1145307008</internalNodes>
          <leafValues>
            -8.8928574323654175e-01 8.2499998807907104e-01</leafValues></_>
        <_>
          <internalNodes>
            0 -1 26 -212623393 -1145974585 1560396255 -543207287
            -523519553 -70188026 -1163727953 -5256461</internalNodes>
          <leafValues>
            -8.7107354402542114e-01 9.0813016891479492e-01</leafValues></_></weakClassifiers></_>
    <!-- stage 5 -->
    <_>
      <maxWeakCount>2</maxWeakCount>
      <stageThreshold>-1.4802588522434235e-01</stageThreshold>
      <weakClassifiers>
        <_>
          <internalNodes>
            0 -1 31 -96470070 -242907805 -2147459066 -842039293
            -901258245 -207192063 -1022850929 -67372401</internalNodes>
          <leafValues>
            -9.0055251121520996e-01 7.3540854454040527e-01</leafValues></_>
        <_>
          <internalNodes>
            0 -1 6 -147595785 -617115531 143869397 -586571757 1914827687
            -1608318961 -332740405 -20972465</internalNodes>
          <leafValues>
            -8.8343447446823120e-01 8.1233870983123779e-01</leafValues></_></weakClassifiers></_>
    <!-- stage 6 -->
    <_>
      <maxWeakCount>2</maxWeakCount>
      <stageThreshold>-8.6537167429924011e-02</stageThreshold>
      <weakClassifiers>
        <_>
          <internalNodes>
            0 -1 19 -572522673 -1009680347 -987135861 -907722237
            -953974021 -1425438251 -1853710085 -1056117</internalNodes>
          <leafValues>
            -8.6619716882705688e-01 8.2758623361587524e-01</leafValues></_>
        <_>
          <internalNodes>
            0 -1 17 1906303431 -988810489 -1694278701 1461813505
            -238173809 -528251901 -242660709 -168834949</internalNodes>
          <leafValues>
            -9.1412335634231567e-01 7.8420025110244751e-01</leafValues></_></weakClassifiers></_>
    <!-- stage 7 -->
    <_>
      <maxWeakCount>2</maxWeakCount>
      <stageThreshold>-1.4462153613567352e-01</stageThreshold>
      <weakClassifiers>
        <_>
          <internalNodes>
            0 -1 15 -1143490305 -1146710665 -2076001797 -6331747
            -921988417 -8052349 -1417606741 -110327893</internalNodes>
          <leafValues>
            -9.0145987272262573e-01 7.6984125375747681e-01</leafValues></_>
        <_>
          <internalNodes>
            0 -1 21 429396413 -587132648 318838239 -1622012784
            -2004839688 -108527608 -2146915847 -1078196224</internalNodes>
          <leafValues>
            -9.1446280479431152e-01 8.2656443119049072e-01</leafValues></_></weakClassifiers></_>
    <!-- stage 8 -->
    <_>
      <maxWeakCount>2</maxWeakCount>
      <stageThreshold>-1.2377578765153885e-01</stageThreshold>
      <weakClassifiers>
        <_>
          <internalNodes>
            0 -1 25 -1713113609 -10466349 -1974365729 -1089510539
            -1166163201 -320649015 -1719059717 -95627559</internalNodes>
          <leafValues>
            -8.8509875535964966e-01 7.9423868656158447e-01</leafValues></_>
        <_>
          <internalNodes>
            0 -1 14 353374421 -544145189 16797721 -1627053567
            -2004315987 -1148057439 -1736320294 -1079502656</internalNodes>
          <leafValues>
            -8.9709842205047607e-01 7.6132297515869141e-01</leafValues></_></weakClassifiers></_>
    <!-- stage 9 -->
    <_>
      <maxWeakCount>2</maxWeakCount>
      <stageThreshold>-2.2448301315307617e-01</stageThreshold>
      <weakClassifiers>
        <_>
          <internalNodes>
            0 -1 4 -708870345 -648687135 -58457773 -754596917
            -2012569369 -768841599 -863845333 -74749401</internalNodes>
          <leafValues>
            -9.3474090099334717e-01 6.7025089263916016e-01</leafValues></_>
        <_>
          <internalNodes>
            0 -1 27 -255668225 -212704281 -1685498533 -685655909
            1648075229 -299429830 -389182580 -105714113</internalNodes>
          <leafValues>
            -8.9473390579223633e-01 7.5309979915618896e-01</leafValues></_></weakClassifiers></_>
    <!-- stage 10 -->
    <_>
      <maxWeakCount>2</maxWeakCount>
      <stageThreshold>-2.6022636890411377e-01</stageThreshold>
      <weakClassifiers>
        <_>
          <internalNodes>
            0 -1 23 -212347569 -235155051 -926523241 -1965397 814580167
            -527290123 -2100245841 -1410362998</internalNodes>
          <leafValues>
            -9.3398058414459229e-01 6.3508772850036621e-01</leafValues></_>
        <_>
          <internalNodes>
            0 -1 30 -1526210129 -1547595369 1909510155 -440283131
            -863377207 -1970134391 -528245555 -268967797</internalNodes>
          <leafValues>
            -8.9531409740447998e-01 6.9716727733612061e-01</leafValues></_></weakClassifiers></_>
    <!-- stage 11 -->
    <_>
      <maxWeakCount>2</maxWeakCount>
      <stageThreshold>-1.4537362754344940e-01</stageThreshold>
      <weakClassifiers>
        <_>
          <internalNodes>
            0 -1 11 -49301569 1406765340 -1656650993 -696020315
            -1247019537 -662664318 -737613681 -269893480</internalNodes>
          <leafValues>
            -8.5840708017349243e-01 7.8723406791687012e-01</leafValues></_>
        <_>
          <internalNodes>
            0 -1 2 -213134849 -268184825 1493238681 -2005950194
            -1724261937 -1433173835 2013518027 1337944619</internalNodes>
          <leafValues>
            -9.3260765075683594e-01 7.2028487920761108e-01</leafValues></_></weakClassifiers></_>
    <!-- stage 12 -->
    <_>
      <maxWeakCount>2</maxWeakCount>
      <stageThreshold>-1.1795414984226227e-01</stageThreshold>
      <weakClassifiers>
        <_>
          <internalNodes>
            0 -1 9 -1824499883 -542109603 1090902847 -577433509
            -517720161 -922952247 -1425262439 -626988768</internalNodes>
          <leafValues>
            -8.8342440128326416e-01 7.3705178499221802e-01</leafValues></_>
        <_>
          <internalNodes>
            0 -1 32 -423105425 -920190333 1493241994 -652541950
            -160591350 -1593835391 -867924850 -1057760273</internalNodes>
          <leafValues>
            -8.5500591993331909e-01 7.8820925951004028e-01</leafValues></_></weakClassifiers></_>
    <!-- stage 13 -->
    <_>
      <maxWeakCount>2</maxWeakCount>
      <stageThreshold>-2.2431939840316772e-01</stageThreshold>
      <weakClassifiers>
        <_>
          <internalNodes>
            0 -1 5 1937227607 -595711201 2013782233 -349910457
            1349561215 -234426229 -1392441270 -207970070</internalNodes>
          <leafValues>
            -9.4082838296890259e-01 6.0409557819366455e-01</leafValues></_>
        <_>
          <internalNodes>
            0 -1 1 -338693585 -1035384701 -2147221502 -534658942
            -536574461 537788416 -1862090239 -209725521</internalNodes>
          <leafValues>
            -8.2841497659683228e-01 8.3306509256362915e-01</leafValues></_></weakClassifiers></_>
    <!-- stage 14 -->
    <_>
      <maxWeakCount>3</maxWeakCount>
      <stageThreshold>-9.7431641817092896e-01</stageThreshold>
      <weakClassifiers>
        <_>
          <internalNodes>
            0 -1 29 -1060376325 -259300845 -1995124389 -1020706803
            -1836872373 -1577025536 705094505 -117735009</internalNodes>
          <leafValues>
            -8.5588753223419189e-01 8.0952382087707520e-01</leafValues></_>
        <_>
          <internalNodes>
            0 -1 3 -1244425923 -1298049225 -2147188619 -720038647
            -1889410117 -1400536808 810680476 -1443824</internalNodes>
          <leafValues>
            -8.5481005907058716e-01 8.0136144161224365e-01</leafValues></_>
        <_>
          <internalNodes>
            0 -1 10 -114306081 -1055814715 -1844210669 1939870239
            -2138721577 305496337 -1845387217 2006972618</internalNodes>
          <leafValues>
            -9.1979038715362549e-01 7.4437534809112549e-01</leafValues></_></weakClassifiers></_>
    <!-- stage 15 -->
    <_>
      <maxWeakCount>2</maxWeakCount>
      <stageThreshold>-1.5630117058753967e-01</stageThreshold>
      <weakClassifiers>
        <_>
          <internalNodes>
            0 -1 12 -1718298115 -1856962215 -2060344929 958202441
            310422234 -99580414 -1387356562 -873979678</internalNodes>
          <leafValues>
            -8.6548674106597900e-01 8.0425530672073364e-01</leafValues></_>
        <_>
          <internalNodes>
            0 -1 24 -778934822 1678344284 -783183040 -2138978855
            411272991 -792633213 -473769731 -3440189</internalNodes>
          <leafValues>
            -9.2457962036132813e-01 7.0918554067611694e-01</leafValues></_></weakClassifiers></_></stages>
  <features>
    <_>
      <rect>
        0 0 8 6</rect></_>
    <_>
      <rect>
        1 8 1 4</rect></_>
    <_>
      <rect>
        1 21 5 6</rect></_>
    <_>
      <rect>
        5 16 18 6</rect></_>
    <_>
      <rect>
        6 0 6 8</rect></_>
    <_>
      <rect>
        6 8 11 7</rect></_>
    <_>
      <rect>
        7 10 9 5</rect></_>
    <_>
      <rect>
        8 3 17 9</rect></_>
    <_>
      <rect>
        10 0 8 11</rect></_>
    <_>
      <rect>
        14 18 14 2</rect></_>
    <_>
      <rect>
        14 21 4 6</rect></_>
    <_>
      <rect>
        18 9 9 4</rect></_>
    <_>
      <rect>
        18 18 12 2</rect></_>
    <_>
      <rect>
        18 43 7 1</rect></_>
    <_>
      <rect>
        21 2 5 1</rect></_>
    <_>
      <rect>
        21 10 7 4</rect></_>
    <_>
      <rect>
        22 9 6 6</rect></_>
    <_>
      <rect>
        23 1 5 13</rect></_>
    <_>
      <rect>
        26 10 7 9</rect></_>
    <_>
      <rect>
        27 20 6 7</rect></_>
    <_>
      <rect>
        27 21 7 9</rect></_>
    <_>
      <rect>
        27 44 7 1</rect></_>
    <_>
      <rect>
        28 5 4 8</rect></_>
    <_>
      <rect>
        28 7 6 7</rect></_>
    <_>
      <rect>
        28 30 7 6</rect></_>
    <_>
      <rect>
        33 8 9 7</rect></_>
    <_>
      <rect>
        33 10 8 6</rect></_>
    <_>
      <rect>
        35 7 6 7</rect></_>
    <_>
      <rect>
        35 7 7 8</rect></_>
    <_>
      <rect>
        42 0 3 10</rect></_>
    <_>
      <rect>
        42 7 7 4</rect></_>
    <_>
      <rect>
        43 22 5 6</rect></_>
    <_>
      <rect>
        55 11 2 8</rect></_></features></cascade>
</opencv_storage>
